{"Layers": [17, 8, 8, 1], "w3": [[-2.8785901106545975, -2.060461303553322, 2.7223205295413675, 0.20271522298350445, 2.5266397454917895, 4.298618027752259, -1.8930827235683616, 1.1458285076221]], "g3": "sigmoid", "b2": [[-0.7478979336607452], [-0.5006300777161171], [2.3678951170085734], [0.01428731899983546], [-0.5555355109978649], [-1.9654158279231262], [0.7856249247615814], [0.8395309691409505]], "g1": "ReLU", "g0": "ReLU", "b3": [[-0.1547590990899107]], "dg2": "dReLU", "dg3": "dSigmoid", "dg0": "dReLU", "dg1": "dReLU", "b0": [[0.0], [0.0], [0.0], [0.0], [0.0], [0.0], [0.0], [0.0], [0.0], [0.0], [0.0], [0.0], [0.0], [0.0], [0.0], [0.0], [0.0]], "b1": [[0.7397958505073103], [-2.4804113106819914], [-1.287828345335201], [0.12237682210117233], [-1.160716405564429], [0.2930281633473316], [-2.3147637752318095], [-0.9479841843041731]], "w1": [[-0.7430939640587172, 0.19408102815269482, -0.0023511483207971015, 0.05418585157815625, 1.2361750317083866, 0.485941620198326, -0.5681423787886629, 0.2820745689538747, 0.04919522424301863, 0.32478257467850535, -0.6021191705584019, 0.08826615233253611, -0.16020874425127263, -0.026655948330461386, 0.06037434738525956, -0.0754962769504906, 0.04523038550594286], [0.30279880956631466, 0.02362550332635505, -0.02767353104434286, -0.44828518491314123, 0.1509589153767768, -0.44363850057390636, 0.4600407041440014, 0.598862075322663, 1.9341440381637187, -0.04434716417437835, 0.05719240503964302, 0.1965332915081221, -0.2371598260952528, 0.01789698981874572, 0.00017441375847119, 0.08395660344677633, -0.13514267030841817], [1.0494548006518043, -0.02566490479403869, -0.08878909298554669, -1.2508746102295245, -1.053508975701285, -0.9239930956051879, -0.4756606456679703, -0.9679707048656268, -0.6783176453572318, -0.9383503782272703, -0.548775274526732, -0.5438107285997873, -0.40144055867317624, -0.4721728167824002, -0.3460570036507675, -0.2955722989653538, -0.24929371621278543], [-0.5318065283505641, -0.10512432643563957, 0.11821762119735549, 0.38082435229328726, -1.5594705090307917, 0.3194468436500225, -1.514642705450812, 0.5244451522999167, -1.3665082296600983, 0.3943142637335162, -1.1602466377982799, 0.306051146873597, -0.9292822225442905, 0.25549379805092326, -0.6289474923083643, 0.1528217667528668, -0.3313083487652172], [-0.26541399281513545, 0.1472460029754233, -0.05782858328999289, 0.23572233382194932, 0.06308496942110968, 0.4608371284261039, -0.08554647328994576, 0.4742196726381886, 0.040887918218436486, 0.2241624929520168, -0.21961178815035853, 0.028790402561033743, 1.1030283660105449, 0.06413494014126261, -0.35447980412890884, -0.03518211268542961, 0.1531606380052738], [-0.2901401936152919, -0.10812503762491457, 0.04730726612262707, -1.5703121519703103, -0.41771024091484543, -0.600075038111962, -0.04282874052265622, -0.31007724657800584, -0.011596353197905288, -0.2008778996330918, 0.07359846338996869, 0.13326752524225968, 0.15979813572501325, -0.05609644961811981, 0.08505992786415129, -0.1372545054598719, -0.06264675859617125], [-0.7200572969995868, -0.10726791159942822, 0.05872990626332419, 0.38212147468323565, 0.008305703401977529, 0.37779610967474747, 0.6615299312769888, 0.4559840049898166, 0.10189266842833614, 0.03330744893818496, 2.3628266373726006, 0.09883769340969818, 0.1121468739173248, 0.23326030710115775, 0.06846947934225239, 0.09450658994178088, 0.0341784145287056], [2.8076168537713126, 0.01378845369025484, 0.06906858828624217, -0.10404467799474885, -1.1070624004251353, -0.37945134856539936, -0.48110200274556025, -0.2766538493091613, -0.6068212768729941, -0.3493058073354935, -0.37193518857226926, -0.23241779558150844, -0.36474686856934146, -0.09550862046973475, -0.39873601374870504, 0.007530501396314397, -0.16494576723878596]], "w0": [[-0.03290206900430132], [0.1293373174412974], [-0.00262320398108265], [0.14338483983328412], [0.07582260306247282], [0.11640995926043218], [-0.01697455335131606], [-0.30802791854312883], [-0.13986010966157084], [-0.14238490882771285], [0.13455924622695767], [-0.0603385758709725], [-0.07992362254126661], [0.1255658787737792], [0.002160916302675416], [-0.15675769940492135], [-0.10046656326712487]], "alpha": 0.03, "nLayer": 4, "reg": 0.0, "g2": "ReLU", "w2": [[0.8595760309926224, -0.8239897527355277, -1.0580462314611596, -1.0888975814086785, -0.7599724442261538, 0.5526892403327102, -1.7875424641801843, 1.11857650334246], [0.9429605426652382, -0.2764563289143832, -0.42603765139976063, -1.5352640843958079, 0.26034313294072753, 0.37287410347062483, -0.5400415753586045, 0.46069455119782904], [0.05557802800381174, -0.20736248130623383, 0.9816375061963383, 0.8234279077138298, -0.07014452197999098, -0.22242543640255658, 0.5410027087327651, -1.0320692193914416], [0.1171175471437868, 0.02800884761452163, 0.02777223980797395, -0.09302523736752641, -0.04776520381064786, -0.007029427962907474, -0.15271088248689518, -0.21798497666755828], [-0.3823345610052687, -1.832064130686476, -1.1964583341056074, 0.05440333436872487, -0.054364723475621816, -0.6496391533239895, -0.02344921250468717, 1.146105699759562], [0.9649895576212871, 2.3627558289353083, 0.2085172896787802, -0.4776440359682913, 1.176294508162182, -0.9214452720371298, 2.3801812829945654, 0.14513865305790172], [-0.16901599432272582, -0.3607843145259749, -1.2273345759605359, 0.41605594231666554, -0.41157153256996293, 0.10670066665917813, -0.4653134378590546, 1.0372356255216137], [-0.09798759615446197, 0.4848124232638087, -0.1359846932184021, -0.03074844066132713, -0.025443240643296082, -0.08302357938597127, -0.05423863884275509, -0.6017451454231819]]}