{"nLayer": 5, "alpha": 0.03, "reg": 0.0, "Layers": [17, 8, 8, 4, 1], "w0": [[-0.05821711531391251], [-0.10430051505548776], [0.01865769893111637], [0.25818115763535227], [-0.05735326031699017], [0.005039296953286585], [0.0040352156255533955], [0.09582373568590113], [0.07299474713482927], [-0.13800671069047646], [0.08044282254041074], [-0.02462000260888121], [-0.012065200779878073], [-0.10869297540873382], [0.0053534593125153015], [0.0400250937542311], [0.15712877288995197]], "b0": [[0.0], [0.0], [0.0], [0.0], [0.0], [0.0], [0.0], [0.0], [0.0], [0.0], [0.0], [0.0], [0.0], [0.0], [0.0], [0.0], [0.0]], "g0": "ReLU", "dg0": "dReLU", "w1": [[1.283908203220765, -0.08928017778808835, -0.11013224705262048, -0.04934850540696092, -0.14714494441589418, -0.35554215131118205, 0.1349260726273028, -0.8000736827425795, 0.4366156906749303, -1.247674650638177, 0.7248579069792342, -0.5528316602487864, -0.24152391319809483, -1.393466169642478, -1.4371244303338, -0.36451100379166057, 0.0876129850663778], [-1.9860673376204956, 0.08493901762893967, 0.12491940599665921, -0.12344708246163835, -2.5813107594757936, -0.08346554917686265, -1.9484691605509592, -0.07398883533694564, -2.2593518823625813, -0.19144076714281316, -2.0890175208911446, 0.06215759898198613, -1.4268286433463813, -0.1288226804730136, -1.3049852789485215, 0.08951945660777676, -0.7164127119185527], [-3.150155917993136, -0.10789447729254545, -0.05574455151841819, 1.262051573529523, 1.3060998245189956, 1.0690089302844608, 1.067775143211176, 1.3443117112351477, 1.2628253647894971, 0.8067125624030301, 0.9001651281120243, 0.8272916967915749, 0.5295611569899026, 0.6684825546195413, 0.19065507178979305, 0.5696210878806496, 0.39235861717458187], [1.495964736730725, 0.13633070534392364, 0.10908069865083159, 0.626644958579217, -1.2590834139101166, -0.3088211590255222, -0.21444349667683524, -1.3831857272124366, -1.3722082123571906, -1.39633521400742, -0.9148014602469932, -0.7452679818897714, -0.8302442759526971, -0.4756329721525743, 0.5908894065479472, -0.4258276169183337, -0.50163369983718], [2.2956889623589514, 0.12626101561279943, 0.0011886021862393145, -0.4302165322992432, -1.1348085729252113, -0.09002511733352637, -1.4220337965264462, -1.4818994275851989, -0.019436950649666548, 0.6971106430050029, 0.7165560080830093, -0.8049614379360336, -0.4187027554815067, -0.8071162585854479, -0.22029437971924884, -0.6820735726444759, -0.01497566827954239], [0.905864568490101, 0.10073810702168076, 0.016938548255343903, -0.05617047722048684, -0.9638131621389536, -0.49427240340805867, -0.3455116612173183, -1.4583855110394013, -0.7022177264622357, -1.3549363818272162, -0.3206919923402297, -0.8381935134991392, -0.6914486779572844, -0.19711021578296667, 1.7326915724269434, -0.6701850489757314, -0.40133538829071336], [-2.1022426508513634, -0.0871103582332688, -0.006439220599870389, 0.11880806450063479, 0.5196037761912502, -0.44806972911680837, 0.7450087987090342, -1.0097097409900144, 1.1223422211863525, -1.449225554215483, 0.9964441387703905, -0.36912048618580595, -0.20396601991094934, -0.5935162627878996, -0.14624127509415005, -0.02499485622720168, 0.1059790660452727], [1.9464318956488313, -0.06799626071027326, 0.1640440790958541, -0.0038314214782215555, 0.15545386283728493, -0.3148297704334164, 0.011491948632495115, -0.5940077820766784, -1.1999041367214887, 1.6415737242339206, 0.38928627289035095, -0.2678576176352998, -0.05527445936300241, 0.07788709535868543, -0.030164519242605336, -0.032843900132621805, -0.14323633632902708]], "b1": [[-1.2960350948950392], [1.2463549964610459], [3.1450229118130735], [-1.6239790234872191], [-3.0002664724908], [-1.003280633556709], [3.362670507884966], [-5.094679048301529]], "g1": "ReLU", "dg1": "dReLU", "w2": [[1.0027967286266555, 0.18012997180735146, 1.946820158023214, 1.532692674313054, 1.2557666639804135, 0.5806200767882144, -1.5195357114777994, 1.7587041896326203], [-0.1994409951189638, -0.9403022080277623, -0.017130010195363952, 0.9519058546667344, 2.3893167053825928, -0.2342084162550682, -1.3823458215433686, -1.22387687680693], [-0.7208103089068887, -0.9091254522973612, -0.043488791240795646, 0.4890136261309371, 1.6018677912445234, -0.5725915148959752, -1.178314517520731, -1.0902117106296236], [-1.2146327481457941, 0.03374707862204921, 0.6807716977329967, 0.9547375422530989, 1.34568814823712, -1.069511121774899, 1.3262701772419434, 1.4201107784796165], [-0.08844665480609212, -2.960162471825444, -0.6719992527136863, 0.6179027436751426, 1.3905555873934041, -0.5641216589038397, 0.3162572038325742, -2.7993283170550396], [0.38172943162204426, -0.8698376875840089, 1.0110054520491187, 1.2456101839050286, 0.6627308438920269, -0.09976478047470069, -0.72872113225956, 1.4561213065965002], [1.4202990218231824, -1.5712120056338335, 0.8715097534260001, -0.9734622781770703, 0.1645663999162103, 1.5259414140427647, -0.2804781064388656, -0.6747491110109495], [0.5672503300349245, -0.5606618295930956, -1.310648864753136, 0.3418683733711803, 0.017792256413802218, -1.4901249088037285, -0.44382212055017484, 0.8603919118793278]], "b2": [[-0.5395757082692368], [1.732374831066261], [3.0678862824927746], [-4.514307484879762], [1.8823238732843903], [3.1740339127579302], [-2.2356572357207547], [0.24622643881745615]], "g2": "ReLU", "dg2": "dReLU", "w3": [[-1.8598088182484105, 1.798262555970987, -1.8954367117917839, -2.04011187338941, -0.2546526607687526, 1.6516753982883206, 0.06329260800614173, -1.4375601507188318], [0.5184288652313533, -0.5895070576092476, 0.8091479934738116, 4.065594374375378, -2.9891955799704917, -0.516164745520044, 2.408819838377333, 1.029959578465132], [0.06681325841335033, -0.9166320929749021, -0.17026988633763662, 0.23577494928963028, 0.8374475320349192, -0.3230338293024813, -0.24108041599963909, -0.6643044738323219], [-0.4645824435340616, 0.3656382219756517, -0.3334757118353111, -0.5517719966835407, 0.16761795562449544, 0.6669928476308293, -0.2010472142784502, 0.7975305353924033]], "b3": [[0.3321411429957782], [-0.29165600784490703], [1.0047084742265726], [0.05597747173325504]], "g3": "ReLU", "dg3": "dReLU", "w4": [[-3.019188091655699, 3.9045609450437198, 1.6376089249985668, -0.9369598905887772]], "b4": [[0.5086615267318833]], "g4": "sigmoid", "dg4": "dSigmoid"}